<?xml version="1.0"?>
<opencv_storage>
<cascade>
  <stageType>BOOST</stageType>
  <featureType>HAAR</featureType>
  <height>80</height>
  <width>100</width>
  <stageParams>
    <boostType>GAB</boostType>
    <minHitRate>9.9900001287460327e-01</minHitRate>
    <maxFalseAlarm>5.0000000000000000e-01</maxFalseAlarm>
    <weightTrimRate>9.4999999999999996e-01</weightTrimRate>
    <maxDepth>1</maxDepth>
    <maxWeakCount>100</maxWeakCount></stageParams>
  <featureParams>
    <maxCatCount>0</maxCatCount>
    <featSize>1</featSize>
    <mode>ALL</mode></featureParams>
  <stageNum>10</stageNum>
  <stages>
    <!-- stage 0 -->
    <_>
      <maxWeakCount>4</maxWeakCount>
      <stageThreshold>-1.5670964717864990e+00</stageThreshold>
      <weakClassifiers>
        <_>
          <internalNodes>
            0 -1 49 -2.1099701523780823e-02</internalNodes>
          <leafValues>
            8.7368422746658325e-01 -8.1666666269302368e-01</leafValues></_>
        <_>
          <internalNodes>
            0 -1 53 1.4253799803555012e-02</internalNodes>
          <leafValues>
            -8.3061605691909790e-01 4.8019683361053467e-01</leafValues></_>
        <_>
          <internalNodes>
            0 -1 16 -2.2168859839439392e-02</internalNodes>
          <leafValues>
            8.9903455972671509e-01 -4.5093458890914917e-01</leafValues></_>
        <_>
          <internalNodes>
            0 -1 57 -6.2359240837395191e-03</internalNodes>
          <leafValues>
            5.3112083673477173e-01 -6.2135070562362671e-01</leafValues></_></weakClassifiers></_>
    <!-- stage 1 -->
    <_>
      <maxWeakCount>6</maxWeakCount>
      <stageThreshold>-1.5313775539398193e+00</stageThreshold>
      <weakClassifiers>
        <_>
          <internalNodes>
            0 -1 40 -3.9692230522632599e-02</internalNodes>
          <leafValues>
            7.5257730484008789e-01 -8.0501395463943481e-01</leafValues></_>
        <_>
          <internalNodes>
            0 -1 44 -2.8392081148922443e-03</internalNodes>
          <leafValues>
            6.4767420291900635e-01 -5.5622643232345581e-01</leafValues></_>
        <_>
          <internalNodes>
            0 -1 34 -1.5970466658473015e-02</internalNodes>
          <leafValues>
            8.2366621494293213e-01 -4.5845007896423340e-01</leafValues></_>
        <_>
          <internalNodes>
            0 -1 2 1.1078575253486633e-01</internalNodes>
          <leafValues>
            3.8756409287452698e-01 -9.5515269041061401e-01</leafValues></_>
        <_>
          <internalNodes>
            0 -1 33 1.7243871698155999e-03</internalNodes>
          <leafValues>
            -7.8895294666290283e-01 4.2609617114067078e-01</leafValues></_>
        <_>
          <internalNodes>
            0 -1 45 -2.5223155971616507e-03</internalNodes>
          <leafValues>
            6.8970173597335815e-01 -5.0710564851760864e-01</leafValues></_></weakClassifiers></_>
    <!-- stage 2 -->
    <_>
      <maxWeakCount>7</maxWeakCount>
      <stageThreshold>-1.4499230384826660e+00</stageThreshold>
      <weakClassifiers>
        <_>
          <internalNodes>
            0 -1 32 -2.9144487343728542e-03</internalNodes>
          <leafValues>
            6.4102566242218018e-01 -7.9094076156616211e-01</leafValues></_>
        <_>
          <internalNodes>
            0 -1 24 -2.6577118784189224e-02</internalNodes>
          <leafValues>
            9.1207557916641235e-01 -5.2663093805313110e-01</leafValues></_>
        <_>
          <internalNodes>
            0 -1 43 8.5810907185077667e-03</internalNodes>
          <leafValues>
            -4.6035322546958923e-01 5.5277931690216064e-01</leafValues></_>
        <_>
          <internalNodes>
            0 -1 8 1.8676721956580877e-03</internalNodes>
          <leafValues>
            -3.8806581497192383e-01 7.0098346471786499e-01</leafValues></_>
        <_>
          <internalNodes>
            0 -1 13 -4.3230182491242886e-03</internalNodes>
          <leafValues>
            -8.2017862796783447e-01 3.2436835765838623e-01</leafValues></_>
        <_>
          <internalNodes>
            0 -1 27 -8.9387632906436920e-03</internalNodes>
          <leafValues>
            8.7776648998260498e-01 -2.7728572487831116e-01</leafValues></_>
        <_>
          <internalNodes>
            0 -1 11 -5.6946342810988426e-03</internalNodes>
          <leafValues>
            7.1480780839920044e-01 -3.4414741396903992e-01</leafValues></_></weakClassifiers></_>
    <!-- stage 3 -->
    <_>
      <maxWeakCount>8</maxWeakCount>
      <stageThreshold>-1.3347802162170410e+00</stageThreshold>
      <weakClassifiers>
        <_>
          <internalNodes>
            0 -1 51 -4.6474866569042206e-02</internalNodes>
          <leafValues>
            6.9014084339141846e-01 -7.4462366104125977e-01</leafValues></_>
        <_>
          <internalNodes>
            0 -1 48 -2.4506442248821259e-02</internalNodes>
          <leafValues>
            8.2582640647888184e-01 -4.2129909992218018e-01</leafValues></_>
        <_>
          <internalNodes>
            0 -1 3 -1.1264289496466517e-03</internalNodes>
          <leafValues>
            3.6032098531723022e-01 -6.7158997058868408e-01</leafValues></_>
        <_>
          <internalNodes>
            0 -1 59 -7.8006098046898842e-03</internalNodes>
          <leafValues>
            8.2787930965423584e-01 -3.0564960837364197e-01</leafValues></_>
        <_>
          <internalNodes>
            0 -1 26 5.0073321908712387e-03</internalNodes>
          <leafValues>
            -9.2473191022872925e-01 2.8572061657905579e-01</leafValues></_>
        <_>
          <internalNodes>
            0 -1 62 2.8319759294390678e-03</internalNodes>
          <leafValues>
            -3.5260918736457825e-01 6.9006288051605225e-01</leafValues></_>
        <_>
          <internalNodes>
            0 -1 46 -1.8514010589569807e-03</internalNodes>
          <leafValues>
            -8.3392357826232910e-01 3.4017866849899292e-01</leafValues></_>
        <_>
          <internalNodes>
            0 -1 19 1.6016608104109764e-02</internalNodes>
          <leafValues>
            -3.6538878083229065e-01 7.3824691772460938e-01</leafValues></_></weakClassifiers></_>
    <!-- stage 4 -->
    <_>
      <maxWeakCount>8</maxWeakCount>
      <stageThreshold>-1.5981769561767578e+00</stageThreshold>
      <weakClassifiers>
        <_>
          <internalNodes>
            0 -1 35 -1.1090485379099846e-02</internalNodes>
          <leafValues>
            6.1142855882644653e-01 -7.6769757270812988e-01</leafValues></_>
        <_>
          <internalNodes>
            0 -1 31 -4.0914967656135559e-02</internalNodes>
          <leafValues>
            7.7808809280395508e-01 -4.9387720227241516e-01</leafValues></_>
        <_>
          <internalNodes>
            0 -1 29 -4.4770754175260663e-04</internalNodes>
          <leafValues>
            4.4879648089408875e-01 -4.9623087048530579e-01</leafValues></_>
        <_>
          <internalNodes>
            0 -1 60 -1.2370352633297443e-02</internalNodes>
          <leafValues>
            8.2854247093200684e-01 -2.6028728485107422e-01</leafValues></_>
        <_>
          <internalNodes>
            0 -1 58 -1.4046283904463053e-03</internalNodes>
          <leafValues>
            6.7969691753387451e-01 -2.7736440300941467e-01</leafValues></_>
        <_>
          <internalNodes>
            0 -1 61 2.8170062229037285e-02</internalNodes>
          <leafValues>
            -2.0585304498672485e-01 9.3098580837249756e-01</leafValues></_>
        <_>
          <internalNodes>
            0 -1 66 7.0792054757475853e-03</internalNodes>
          <leafValues>
            -2.8695631027221680e-01 7.1428334712982178e-01</leafValues></_>
        <_>
          <internalNodes>
            0 -1 15 4.6293396502733231e-02</internalNodes>
          <leafValues>
            2.4506239593029022e-01 -9.4716238975524902e-01</leafValues></_></weakClassifiers></_>
    <!-- stage 5 -->
    <_>
      <maxWeakCount>6</maxWeakCount>
      <stageThreshold>-1.5025033950805664e+00</stageThreshold>
      <weakClassifiers>
        <_>
          <internalNodes>
            0 -1 9 9.6356100402772427e-04</internalNodes>
          <leafValues>
            -7.4695533514022827e-01 6.1842107772827148e-01</leafValues></_>
        <_>
          <internalNodes>
            0 -1 0 -6.1989601701498032e-02</internalNodes>
          <leafValues>
            -8.0506426095962524e-01 2.1936488151550293e-01</leafValues></_>
        <_>
          <internalNodes>
            0 -1 28 7.7302404679358006e-04</internalNodes>
          <leafValues>
            -6.0104870796203613e-01 4.3646168708801270e-01</leafValues></_>
        <_>
          <internalNodes>
            0 -1 64 2.1494096145033836e-02</internalNodes>
          <leafValues>
            -2.6839637756347656e-01 8.4749507904052734e-01</leafValues></_>
        <_>
          <internalNodes>
            0 -1 63 5.7723284699022770e-03</internalNodes>
          <leafValues>
            -3.1187379360198975e-01 6.2821424007415771e-01</leafValues></_>
        <_>
          <internalNodes>
            0 -1 38 4.0515795350074768e-02</internalNodes>
          <leafValues>
            2.9616221785545349e-01 -9.0948551893234253e-01</leafValues></_></weakClassifiers></_>
    <!-- stage 6 -->
    <_>
      <maxWeakCount>8</maxWeakCount>
      <stageThreshold>-1.6795107126235962e+00</stageThreshold>
      <weakClassifiers>
        <_>
          <internalNodes>
            0 -1 23 -7.2266303002834320e-02</internalNodes>
          <leafValues>
            8.7500000000000000e-01 -7.6446837186813354e-01</leafValues></_>
        <_>
          <internalNodes>
            0 -1 67 -3.7151421420276165e-03</internalNodes>
          <leafValues>
            6.8584054708480835e-01 -4.7209486365318298e-01</leafValues></_>
        <_>
          <internalNodes>
            0 -1 41 8.7396957678720355e-04</internalNodes>
          <leafValues>
            -3.2330965995788574e-01 7.0611047744750977e-01</leafValues></_>
        <_>
          <internalNodes>
            0 -1 39 -1.1694309301674366e-02</internalNodes>
          <leafValues>
            -9.0319097042083740e-01 3.0664181709289551e-01</leafValues></_>
        <_>
          <internalNodes>
            0 -1 4 4.2317388579249382e-03</internalNodes>
          <leafValues>
            -3.8656643033027649e-01 5.9798836708068848e-01</leafValues></_>
        <_>
          <internalNodes>
            0 -1 18 -1.3467816635966301e-02</internalNodes>
          <leafValues>
            8.5300457477569580e-01 -2.1393303573131561e-01</leafValues></_>
        <_>
          <internalNodes>
            0 -1 54 3.3157123252749443e-03</internalNodes>
          <leafValues>
            -3.1363138556480408e-01 7.1616393327713013e-01</leafValues></_>
        <_>
          <internalNodes>
            0 -1 6 -8.6103944340720773e-05</internalNodes>
          <leafValues>
            4.8785117268562317e-01 -4.6489796042442322e-01</leafValues></_></weakClassifiers></_>
    <!-- stage 7 -->
    <_>
      <maxWeakCount>8</maxWeakCount>
      <stageThreshold>-1.6737036705017090e+00</stageThreshold>
      <weakClassifiers>
        <_>
          <internalNodes>
            0 -1 20 6.0420958325266838e-03</internalNodes>
          <leafValues>
            -7.4093961715698242e-01 6.7142856121063232e-01</leafValues></_>
        <_>
          <internalNodes>
            0 -1 21 -1.0367373004555702e-02</internalNodes>
          <leafValues>
            8.2746839523315430e-01 -4.6796897053718567e-01</leafValues></_>
        <_>
          <internalNodes>
            0 -1 55 2.8018585871905088e-03</internalNodes>
          <leafValues>
            -8.0007249116897583e-01 3.6867129802703857e-01</leafValues></_>
        <_>
          <internalNodes>
            0 -1 5 1.2639542110264301e-03</internalNodes>
          <leafValues>
            -5.3821182250976562e-01 3.8872814178466797e-01</leafValues></_>
        <_>
          <internalNodes>
            0 -1 50 3.9774635806679726e-03</internalNodes>
          <leafValues>
            -4.7724565863609314e-01 4.2206716537475586e-01</leafValues></_>
        <_>
          <internalNodes>
            0 -1 52 -3.4304140135645866e-03</internalNodes>
          <leafValues>
            6.4016127586364746e-01 -3.3537045121192932e-01</leafValues></_>
        <_>
          <internalNodes>
            0 -1 12 -4.6564597869291902e-04</internalNodes>
          <leafValues>
            3.1736335158348083e-01 -7.1034610271453857e-01</leafValues></_>
        <_>
          <internalNodes>
            0 -1 56 1.9817673601210117e-03</internalNodes>
          <leafValues>
            -5.3372967243194580e-01 4.4413805007934570e-01</leafValues></_></weakClassifiers></_>
    <!-- stage 8 -->
    <_>
      <maxWeakCount>8</maxWeakCount>
      <stageThreshold>-1.4921374320983887e+00</stageThreshold>
      <weakClassifiers>
        <_>
          <internalNodes>
            0 -1 37 -4.8522979021072388e-02</internalNodes>
          <leafValues>
            6.3513511419296265e-01 -7.4493926763534546e-01</leafValues></_>
        <_>
          <internalNodes>
            0 -1 36 8.3986623212695122e-04</internalNodes>
          <leafValues>
            -5.6529021263122559e-01 3.7917798757553101e-01</leafValues></_>
        <_>
          <internalNodes>
            0 -1 22 1.9443753990344703e-04</internalNodes>
          <leafValues>
            -3.5493585467338562e-01 5.6441324949264526e-01</leafValues></_>
        <_>
          <internalNodes>
            0 -1 42 1.8575992435216904e-02</internalNodes>
          <leafValues>
            2.0111553370952606e-01 -9.3450605869293213e-01</leafValues></_>
        <_>
          <internalNodes>
            0 -1 7 1.8513899296522141e-02</internalNodes>
          <leafValues>
            -5.8175081014633179e-01 3.5349264740943909e-01</leafValues></_>
        <_>
          <internalNodes>
            0 -1 47 1.3075429887976497e-04</internalNodes>
          <leafValues>
            -6.3824659585952759e-01 2.8496164083480835e-01</leafValues></_>
        <_>
          <internalNodes>
            0 -1 14 -1.6254099085927010e-02</internalNodes>
          <leafValues>
            5.4795664548873901e-01 -3.3913609385490417e-01</leafValues></_>
        <_>
          <internalNodes>
            0 -1 25 -2.6867724955081940e-03</internalNodes>
          <leafValues>
            7.5273287296295166e-01 -2.7925509214401245e-01</leafValues></_></weakClassifiers></_>
    <!-- stage 9 -->
    <_>
      <maxWeakCount>5</maxWeakCount>
      <stageThreshold>-1.8377932310104370e+00</stageThreshold>
      <weakClassifiers>
        <_>
          <internalNodes>
            0 -1 30 7.8629760537296534e-04</internalNodes>
          <leafValues>
            -7.4932974576950073e-01 7.8260868787765503e-01</leafValues></_>
        <_>
          <internalNodes>
            0 -1 10 6.4277846831828356e-04</internalNodes>
          <leafValues>
            3.9953756332397461e-01 -8.6758697032928467e-01</leafValues></_>
        <_>
          <internalNodes>
            0 -1 1 -9.8044238984584808e-04</internalNodes>
          <leafValues>
            -7.7526414394378662e-01 2.7768602967262268e-01</leafValues></_>
        <_>
          <internalNodes>
            0 -1 17 -1.2296773493289948e-02</internalNodes>
          <leafValues>
            6.3449043035507202e-01 -4.2011079192161560e-01</leafValues></_>
        <_>
          <internalNodes>
            0 -1 65 1.9925484433770180e-02</internalNodes>
          <leafValues>
            -2.9262602329254150e-01 9.0695399045944214e-01</leafValues></_></weakClassifiers></_></stages>
  <features>
    <_>
      <rects>
        <_>
          0 0 86 77 -1.</_>
        <_>
          43 0 43 77 2.</_></rects>
      <tilted>0</tilted></_>
    <_>
      <rects>
        <_>
          1 0 50 6 -1.</_>
        <_>
          26 0 25 6 2.</_></rects>
      <tilted>0</tilted></_>
    <_>
      <rects>
        <_>
          2 0 98 80 -1.</_>
        <_>
          2 40 98 40 2.</_></rects>
      <tilted>0</tilted></_>
    <_>
      <rects>
        <_>
          2 3 2 76 -1.</_>
        <_>
          2 41 2 38 2.</_></rects>
      <tilted>0</tilted></_>
    <_>
      <rects>
        <_>
          2 22 38 12 -1.</_>
        <_>
          2 22 19 6 2.</_>
        <_>
          21 28 19 6 2.</_></rects>
      <tilted>0</tilted></_>
    <_>
      <rects>
        <_>
          4 2 48 9 -1.</_>
        <_>
          28 2 24 9 2.</_></rects>
      <tilted>0</tilted></_>
    <_>
      <rects>
        <_>
          5 0 4 5 -1.</_>
        <_>
          5 0 2 5 2.</_></rects>
      <tilted>1</tilted></_>
    <_>
      <rects>
        <_>
          9 34 78 16 -1.</_>
        <_>
          35 34 26 16 3.</_></rects>
      <tilted>0</tilted></_>
    <_>
      <rects>
        <_>
          11 0 33 1 -1.</_>
        <_>
          22 11 11 1 3.</_></rects>
      <tilted>1</tilted></_>
    <_>
      <rects>
        <_>
          11 68 42 2 -1.</_>
        <_>
          11 68 21 1 2.</_>
        <_>
          32 69 21 1 2.</_></rects>
      <tilted>0</tilted></_>
    <_>
      <rects>
        <_>
          13 0 14 78 -1.</_>
        <_>
          13 39 14 39 2.</_></rects>
      <tilted>0</tilted></_>
    <_>
      <rects>
        <_>
          14 45 40 10 -1.</_>
        <_>
          14 45 20 5 2.</_>
        <_>
          34 50 20 5 2.</_></rects>
      <tilted>0</tilted></_>
    <_>
      <rects>
        <_>
          15 4 2 46 -1.</_>
        <_>
          15 27 2 23 2.</_></rects>
      <tilted>0</tilted></_>
    <_>
      <rects>
        <_>
          21 0 72 80 -1.</_>
        <_>
          39 0 36 80 2.</_></rects>
      <tilted>0</tilted></_>
    <_>
      <rects>
        <_>
          22 56 70 14 -1.</_>
        <_>
          22 56 35 7 2.</_>
        <_>
          57 63 35 7 2.</_></rects>
      <tilted>0</tilted></_>
    <_>
      <rects>
        <_>
          24 12 48 54 -1.</_>
        <_>
          48 12 24 54 2.</_></rects>
      <tilted>0</tilted></_>
    <_>
      <rects>
        <_>
          24 56 56 14 -1.</_>
        <_>
          24 56 28 7 2.</_>
        <_>
          52 63 28 7 2.</_></rects>
      <tilted>0</tilted></_>
    <_>
      <rects>
        <_>
          24 56 72 10 -1.</_>
        <_>
          24 56 36 5 2.</_>
        <_>
          60 61 36 5 2.</_></rects>
      <tilted>0</tilted></_>
    <_>
      <rects>
        <_>
          25 60 18 18 -1.</_>
        <_>
          25 69 18 9 2.</_></rects>
      <tilted>0</tilted></_>
    <_>
      <rects>
        <_>
          27 52 18 28 -1.</_>
        <_>
          27 59 18 14 2.</_></rects>
      <tilted>0</tilted></_>
    <_>
      <rects>
        <_>
          28 13 34 8 -1.</_>
        <_>
          28 13 17 4 2.</_>
        <_>
          45 17 17 4 2.</_></rects>
      <tilted>0</tilted></_>
    <_>
      <rects>
        <_>
          29 10 42 12 -1.</_>
        <_>
          29 10 21 6 2.</_>
        <_>
          50 16 21 6 2.</_></rects>
      <tilted>0</tilted></_>
    <_>
      <rects>
        <_>
          31 40 4 6 -1.</_>
        <_>
          33 40 2 6 2.</_></rects>
      <tilted>0</tilted></_>
    <_>
      <rects>
        <_>
          33 43 26 30 -1.</_>
        <_>
          33 53 26 10 3.</_></rects>
      <tilted>0</tilted></_>
    <_>
      <rects>
        <_>
          33 45 21 21 -1.</_>
        <_>
          33 52 21 7 3.</_></rects>
      <tilted>0</tilted></_>
    <_>
      <rects>
        <_>
          35 12 4 10 -1.</_>
        <_>
          35 17 4 5 2.</_></rects>
      <tilted>0</tilted></_>
    <_>
      <rects>
        <_>
          35 27 29 30 -1.</_>
        <_>
          35 37 29 10 3.</_></rects>
      <tilted>0</tilted></_>
    <_>
      <rects>
        <_>
          36 10 8 21 -1.</_>
        <_>
          36 17 8 7 3.</_></rects>
      <tilted>0</tilted></_>
    <_>
      <rects>
        <_>
          36 26 20 16 -1.</_>
        <_>
          36 30 20 8 2.</_></rects>
      <tilted>0</tilted></_>
    <_>
      <rects>
        <_>
          36 38 24 6 -1.</_>
        <_>
          44 38 8 6 3.</_></rects>
      <tilted>0</tilted></_>
    <_>
      <rects>
        <_>
          38 78 46 2 -1.</_>
        <_>
          38 78 23 1 2.</_>
        <_>
          61 79 23 1 2.</_></rects>
      <tilted>0</tilted></_>
    <_>
      <rects>
        <_>
          39 42 20 27 -1.</_>
        <_>
          39 51 20 9 3.</_></rects>
      <tilted>0</tilted></_>
    <_>
      <rects>
        <_>
          39 66 44 4 -1.</_>
        <_>
          39 66 22 2 2.</_>
        <_>
          61 68 22 2 2.</_></rects>
      <tilted>0</tilted></_>
    <_>
      <rects>
        <_>
          40 23 19 22 -1.</_>
        <_>
          40 34 19 11 2.</_></rects>
      <tilted>0</tilted></_>
    <_>
      <rects>
        <_>
          41 13 17 24 -1.</_>
        <_>
          41 21 17 8 3.</_></rects>
      <tilted>0</tilted></_>
    <_>
      <rects>
        <_>
          41 55 10 21 -1.</_>
        <_>
          41 62 10 7 3.</_></rects>
      <tilted>0</tilted></_>
    <_>
      <rects>
        <_>
          42 26 16 6 -1.</_>
        <_>
          42 29 16 3 2.</_></rects>
      <tilted>0</tilted></_>
    <_>
      <rects>
        <_>
          42 49 17 27 -1.</_>
        <_>
          42 58 17 9 3.</_></rects>
      <tilted>0</tilted></_>
    <_>
      <rects>
        <_>
          43 0 57 66 -1.</_>
        <_>
          43 33 57 33 2.</_></rects>
      <tilted>0</tilted></_>
    <_>
      <rects>
        <_>
          43 2 20 73 -1.</_>
        <_>
          53 2 10 73 2.</_></rects>
      <tilted>0</tilted></_>
    <_>
      <rects>
        <_>
          43 45 16 30 -1.</_>
        <_>
          43 55 16 10 3.</_></rects>
      <tilted>0</tilted></_>
    <_>
      <rects>
        <_>
          44 0 15 6 -1.</_>
        <_>
          44 3 15 3 2.</_></rects>
      <tilted>0</tilted></_>
    <_>
      <rects>
        <_>
          44 11 30 60 -1.</_>
        <_>
          54 11 10 60 3.</_></rects>
      <tilted>0</tilted></_>
    <_>
      <rects>
        <_>
          44 57 19 20 -1.</_>
        <_>
          44 67 19 10 2.</_></rects>
      <tilted>0</tilted></_>
    <_>
      <rects>
        <_>
          44 62 15 9 -1.</_>
        <_>
          44 65 15 3 3.</_></rects>
      <tilted>0</tilted></_>
    <_>
      <rects>
        <_>
          45 10 9 16 -1.</_>
        <_>
          45 14 9 8 2.</_></rects>
      <tilted>0</tilted></_>
    <_>
      <rects>
        <_>
          46 0 18 17 -1.</_>
        <_>
          46 0 9 17 2.</_></rects>
      <tilted>1</tilted></_>
    <_>
      <rects>
        <_>
          46 37 12 9 -1.</_>
        <_>
          52 37 6 9 2.</_></rects>
      <tilted>0</tilted></_>
    <_>
      <rects>
        <_>
          46 45 17 21 -1.</_>
        <_>
          46 52 17 7 3.</_></rects>
      <tilted>0</tilted></_>
    <_>
      <rects>
        <_>
          46 46 14 28 -1.</_>
        <_>
          46 53 14 14 2.</_></rects>
      <tilted>0</tilted></_>
    <_>
      <rects>
        <_>
          48 19 11 22 -1.</_>
        <_>
          48 30 11 11 2.</_></rects>
      <tilted>0</tilted></_>
    <_>
      <rects>
        <_>
          49 45 11 33 -1.</_>
        <_>
          49 56 11 11 3.</_></rects>
      <tilted>0</tilted></_>
    <_>
      <rects>
        <_>
          49 70 16 10 -1.</_>
        <_>
          49 75 16 5 2.</_></rects>
      <tilted>0</tilted></_>
    <_>
      <rects>
        <_>
          50 23 14 39 -1.</_>
        <_>
          50 36 14 13 3.</_></rects>
      <tilted>0</tilted></_>
    <_>
      <rects>
        <_>
          51 17 19 14 -1.</_>
        <_>
          51 24 19 7 2.</_></rects>
      <tilted>0</tilted></_>
    <_>
      <rects>
        <_>
          52 30 7 30 -1.</_>
        <_>
          52 40 7 10 3.</_></rects>
      <tilted>0</tilted></_>
    <_>
      <rects>
        <_>
          53 0 24 12 -1.</_>
        <_>
          53 6 24 6 2.</_></rects>
      <tilted>0</tilted></_>
    <_>
      <rects>
        <_>
          55 21 34 24 -1.</_>
        <_>
          55 21 17 12 2.</_>
        <_>
          72 33 17 12 2.</_></rects>
      <tilted>0</tilted></_>
    <_>
      <rects>
        <_>
          55 60 4 12 -1.</_>
        <_>
          55 64 4 4 3.</_></rects>
      <tilted>0</tilted></_>
    <_>
      <rects>
        <_>
          56 10 9 20 -1.</_>
        <_>
          56 15 9 10 2.</_></rects>
      <tilted>0</tilted></_>
    <_>
      <rects>
        <_>
          58 8 8 28 -1.</_>
        <_>
          58 15 8 14 2.</_></rects>
      <tilted>0</tilted></_>
    <_>
      <rects>
        <_>
          58 49 29 28 -1.</_>
        <_>
          58 56 29 14 2.</_></rects>
      <tilted>0</tilted></_>
    <_>
      <rects>
        <_>
          59 9 9 24 -1.</_>
        <_>
          59 15 9 12 2.</_></rects>
      <tilted>0</tilted></_>
    <_>
      <rects>
        <_>
          61 53 36 14 -1.</_>
        <_>
          61 53 18 7 2.</_>
        <_>
          79 60 18 7 2.</_></rects>
      <tilted>0</tilted></_>
    <_>
      <rects>
        <_>
          64 50 27 24 -1.</_>
        <_>
          64 58 27 8 3.</_></rects>
      <tilted>0</tilted></_>
    <_>
      <rects>
        <_>
          66 55 13 24 -1.</_>
        <_>
          66 63 13 8 3.</_></rects>
      <tilted>0</tilted></_>
    <_>
      <rects>
        <_>
          67 8 19 28 -1.</_>
        <_>
          67 15 19 14 2.</_></rects>
      <tilted>0</tilted></_>
    <_>
      <rects>
        <_>
          76 45 12 7 -1.</_>
        <_>
          79 48 6 7 2.</_></rects>
      <tilted>1</tilted></_></features></cascade>
</opencv_storage>
